0.004259617663483772,-0.19728600175421215,0.37461161490671735,-0.026682319853945174,-0.013047424706332307,-0.011982953179491726,0.07786260763304372,-0.004531059861744655,0.07294685072097656,0.03670762417740406,0.0006580019596192914,-0.004593853320365071,-0.038872820626761326,-7.833212490006031e-05,0.0012085056926782129,0.08115206037565964,0.00950754566653925,0.018670671061963816,-0.04469662663032804,-0.011884286375516797,0.0029112074496901153,0.015243025782482957,-0.27556311990413584,-0.17617791253569376,0.033657385716951635,0.023936943629731113,-2.4109257254703836e-05,-0.0009899451413086366,0.0013410312259796477,-0.005032060061392396,-0.0010968025018856676,0.0012828450797966187,0.0014147634180356802,-0.0004896448137324647,-0.07151480305824377,-0.05872631721391418,0.0050814493559343706,0.017566707758091465,0.0009728119456343813,-0.0014262227749854027,0.014755443555527905,0.0848449149473513,-0.043164083299125855,-0.025458139175949607,0.018311809908652846,-0.0027391932261076803,-0.005302949615446716,-0.049234379206027135,0.014035003991394474,0.007840170891957257,-0.0020113191884768094,-0.00014076488143420789,0.01632886991377098,-0.024901399469002754,0.011407913200978174,0.0011278193806104706,-0.0021592117447795404,0.0003713754897073778,0.03660945279627964,0.005426362582109642,0.21866413961897685,0.12699762680269971,-0.1572767185166912,-0.09389953716554324,-0.025344086792904272,0.043133020760191945,-0.0032109744761930296,-0.021516802887629388,0.011428682917433017,-0.001702594645250328,-0.001333125748625747,-0.05513507979449171,-0.04639143242112773,0.037836009162036124,0.00785637039343122,-0.006306212568475453,0.013028477929250057,0.057979745752255465,-0.008093337494606095,-0.04330154762981703,0.0025497739351490784,0.008503833188412177,0.03383306494403819,0.00038696589160392564,-0.01746673891437478,0.00687000317561718,-0.0010701143110326463,5.965288551307594e-05,-0.03879359173711754,-0.009922544235885518,-0.0011053348207994643,0.008867578630820945,0.0006773211905165622,-0.0019438703940479413,0.010407377455308064,-0.00723225706619704,0.014096384188631586,0.010897150910115255,-0.004315110049950241,-0.003664575401320397,-0.046340944414770595,0.004276867143857756,0.03908933071495243,-0.004633385810184097,-0.006431868492423269,0.001474419434190564,0.023575193622109906,-0.04447923751664894,-0.016005524518000913,0.03281391096249835,0.002439652709144679,-0.006663277653412189,-0.021674149423451493,-0.019097438308842137,0.014037790556388726,0.00295398701456567,-0.0016917318369918007,4.823887955031895e-05,0.017522616279607543,0.02314984710093382,0.0008333378464838127,-0.011589386751084401,-0.09326570432310567,-0.5412463989988614,0.13207336284340188,0.005636828867333821,-0.014310079823300806,-0.0014457037797810904,-0.0007941322532592484,0.00016013272167040248,0.006261843128808262,-0.018821551052383024,0.019891488485922447,0.01456771133715756,-0.005304737867363761,-0.0033020544987204734,0.016619318171233514,0.016859775942784934,-0.005827670405868218,0.004910615869474954,0.09431449863095057,0.5412990211689831,-0.2755986321534847,0.007480607982967544,-0.05779751670232529,0.00838883448504386,0.011024330789519947,-0.03423730282917643,0.03240851529650479,0.041396320196383396,0.0036503267820933074,0.00021654829529933512,0.0005176197110523337,-0.0011328220007792529,-0.010524615446633395,-0.07014252502316543,-0.00037201796207288543,0.012481142929647446,0.012005482173794725,-0.006275496765187322,-0.0022950864484884625,0.009595488389396716,0.0011651747575535457,0.038840403233213146,0.011267657065775427,-0.01093986632689175,-0.01132227878199348,-0.0008546812888243255,-0.01883414975871109,0.0013816439026792648,-0.009219142223447444,0.0013837508064724188,-0.0057234386710620306,0.011792376765137131,0.0253564027100135,0.006080147428741188,0.012156181331652886,-0.0038899263507346763,-0.00015052912209453614,0.00055456279545337,-0.005913684369577312,-0.071440056635288,0.01246721928094098,-0.038752574783835946,0.010505682900058762,-0.06955460077328438,-0.020743412798077253,-4.7060041055382537e-05,6.089242305721415e-05,-0.032149768057572345,-0.008177477445203439,0.007056795718805253,0.007008210074305262,0.004082979060899284,-0.01654233662764023,0.011315112480165132,0.006419149430014601,0.003161196655982413,0.012175712649680714,0.014719390620522787,-0.010395219682884599,-0.006415228103208102,-0.00385906663155317,-0.0030214795219304833,-0.0018336805638616022,-0.004358650832490062,0.005844954625433178,-0.0006766957995911352,0.0032578991631443625,-0.00792815859804582,-0.004205747555271577,-0.007757203228717313,0.0008094295170829959,0.001936022650642382,0.006415469612049425,-8.274426778951565e-05,-0.005369406547885877,0.00794295206709714,-0.009811169703596575,-0.006648741562491758,0.0012455232838350977,-0.0013049045950535962,-0.012878864677260361,0.010749882840569925,-0.006014696995587045,-0.0095212254800645,-0.0016611861327675281,-0.004162993242852877,-0.0025290340498824487,0.0008019322393348479,0.0035324243564996754,-0.002986137038295984,0.016185596754701423,0.011413581411420015,-0.04724666862491889,0.005960622044034015,0.011897714901710172,0.012688156491176456,-6.05375541958093e-05,0.00022696600705876101,0.001794751823545547,-0.0011628420131124995,0.0030886483451927353,-0.0027852548474483216,-0.0061664327776696296,-0.0021457541322712917,-0.004193662472524088,0.036613535393395034,0.011566223651509848,-0.0016967116644355856,-0.0006111515450654551,-0.023634867832615123,-0.0020019337941943366,-0.004566045008710577,0.04013276044548061,-0.00017111571783408287,-0.004097476273204622,0.007855083747826124,0.0007443777349721841,0.0004683127077761452,0.005894149732042858,-0.02551728975402072,0.007795316468550842,0.007066196398224825,0.0005056986061024709,-0.011063559128451212,0.004136845813016969,-0.0007050282345880485,0.0016143786558513872,-0.0027695398956350207,0.0018132376708730003,-0.006248969161964915,0.002874417851256756,0.0012905468849549783,-0.0013347315594920096,0.0014134358030056552,-0.007981048099329785,0.12739729789871448,0.003701592958277116,0.001597749851311009,0.002277551715988321,-0.0037679414036149977,-0.003311830651847073,-0.05085046361874349,0.0023636738561503144,0.00033008948997005193,0.012996672060962937,-0.005625943135471066,-0.0015015996417583988,0.0010650495232805502,0.0029622645567391917,0.007953594946867594,0.007660652497770701,0.0017221630829068885,-0.00428773366614687,0.011225755530310097,0.0003930441225496429,0.033906867246525425,-0.0066031065961914956,0.004466277746581615,-0.005423327090250623,-0.001223225423012007,-0.007441675612795861,0.005814075960440272,0.003557865609785248,-0.005076121938064325,0.0037188071927524192,-0.03873132417820528,-0.00227410955944908,0.0026075590349804506,-0.002237329133543744,-0.0033619121611861156,-0.0009837420564653108,-0.012942220074300749,-0.0017236335250510508,0.00014554019521588403,0.010356559787271348,-0.0034027407006069557,0.003455771645849601,-0.0037806956875598764,0.0003458378198743623,-0.004801573680069625,0.003144874073208112,-0.0017295371836835638,-0.04659389067451794,0.001420883704506344,-0.013740910052453703,0.010365855205667403,0.0006609745831383605,0.0034541759003405732,0.009160193128973737,0.023638713827063,0.002844741535825205,0.0006528353684783897,0.002203246370346081,0.005374927362065231,-0.0034518929227208535,-0.021635818407812212,-0.012271027429059259,-0.0004715614450612265,-0.0004908139746461397,-0.011598997979071837,0.017513365778248673,0.0026110356349158745,-0.001516356916087384,0.0171599986272292,0.13205162970542383,-0.0012960342425263225,0.0022719373053322004,0.006297369754681387,-0.0008617387348715361,0.01680596272195315,0.2687515284143409,-1.0712119709784722,-0.08039052488385044,0.005060904999281732,0.013462827080221484,-0.2826752481391992,-0.00838513330368285,0.0798467317086978,0.015408912934345317,0.024229820304941228,0.008760642986149234,0.07714121106888058,0.0731903810802671,0.06364274193292967,0.023882011324126973,0.08118121568900932,0.014812447691999417,0.02689660343985649,-0.013580672244718973,0.05638721233430899,-0.021062689818164396,0.0908127934195331,-0.0006902844102794348,0.11817170946484148,0.0033959009186908494,0.0712605668897168,0.012531964751814978,0.010604720810832816,0.016289570950585607,0.0547954105870441,-0.014794258129193565,-0.04135236459006997,0.05071087744639126,0.11460600698702166,0.004048460310171555,0.1741511589827941,0.0067471907573798656,0.06581821425609083,0.052166618193053495,0.11459555433425406
