0.02545185429944531,-0.11835015899021224,0.2855209502205012,-0.07337977479781392,0.1495978157808926,-0.012803055569174278,0.02518560649661274,-0.05004466891660983,-0.036187795121797206,-0.030203099037350068,0.00889097033093527,0.09757308177860392,0.10515948953467116,0.009134584811875141,0.006519577186221755,0.008267329349182999,-0.026275504012640165,-0.01890881507150069,-0.006968205893027017,0.040029937510147565,-0.002474327074710617,-0.024840280658338664,0.15078622566895206,-0.0041322336532942285,-0.009314871763604762,0.06069965596468281,-0.004108125278727511,-0.00909941808785472,-0.10352848974139817,-0.006929371792250902,-0.02659267005098353,-0.0679498326619131,-0.009899348644811618,0.024963179507763,0.0014827423073543317,-0.0034259450497509877,-4.782849946079868e-05,0.0001623173338257223,0.002848452955990132,0.10008693733836624,0.07236165882881646,-0.07619035560167906,-0.02589621911836075,0.028397769149794822,0.0006173135824504711,-0.003853622034161744,0.0006664033883380628,-0.03722369464748537,-0.2569318984804647,-0.03236772488577022,0.06821693039255189,0.05100924752668744,-0.018801420304947438,-0.015730934252707197,0.007919970062611017,-0.0009565513715541782,0.07528119202601846,-0.7978155342802263,0.697768245852924,0.21563222655681008,-0.5165221470030259,0.2262540335236039,-0.02550500453802009,-0.005132461444705514,0.0010464510903268045,-0.025001247784884262,0.014876503175863049,0.03605239512820413,-0.029824564112761198,-0.015850085749913062,0.008586036882440506,0.0032206084820528436,-0.0006834099850905507,-0.00022946302681784515,-0.05174379334697702,0.10722759492998807,0.03249520417737813,-0.05102499187579856,-0.0027874152570956864,0.0070459209019018195,7.019534327169048e-05,-0.00018186837978999114,-4.13912172068629e-05,-0.03732962064073492,0.018877957209250673,0.11534019039832742,-0.03855192271417829,-0.05530651819444828,0.036812653945123446,-0.0053830232427944345,-0.0008526021127046842,0.00020561269298829864,0.0012264969312389754,0.07008386904431406,0.023535881665244264,-0.0458764146538076,-0.01653333576032324,0.014004253284850218,0.0017374412116936012,-0.001807158858205382,0.0002144220494643319,7.523994781475501e-05,-0.06208627735308063,-0.02840339908953604,0.04342232189833902,0.010193039679250452,-0.014660564735973252,-0.0001885301018037652,0.002077232668731902,-0.0003701933500595368,0.026388348290995744,0.34046575729188966,0.07388903094346189,-0.19463642759221222,0.047202194180278094,-0.023852024028289343,-0.2318521134455575,-0.148311552474568,-0.026977941896788718,-0.07133100791386962,-0.020851965322590357,0.1827995124223181,-0.0047534834532705905,-0.05029685329024702,-0.03962602524618802,-0.03683151890971731,0.02987820650344573,0.01230479379652194,-0.02740622850596939,-0.002055105718137197,-0.08023799097705933,0.067738723818998,0.013014565756613791,-0.03664195920467929,0.018100250829130547,-0.003950812019853801,0.0003347201285524991,-0.03872131190551891,0.021551460382362296,-0.0043258518699956765,-0.03292693668420267,-0.008540908307462826,0.013296891952428804,0.0038755188617603468,-0.0016052735495172283,-0.0004255858690544137,0.03691736613668559,-0.23248207904364876,-0.22844276109555442,0.291768587921477,0.21647799383614855,-0.1319350071397787,-0.09011212275394564,0.01975010008241703,0.013514124633881044,0.021256445388294132,-0.2182160033591391,0.07066525898337278,0.19450695926770128,-0.13293704699179051,-0.030052426769911628,0.05295215449989141,-0.017461024399765004,0.0018856260908511429,-0.05306810136571492,0.023474313566715876,0.0769442821891223,0.006188492197020223,-0.06706959371398499,-0.007851532701644251,0.02209587854258325,0.001269285814347797,-0.002426338113021206,-0.031208447141278555,0.06994907401102479,0.12429231541490623,-0.06748696855328284,-0.10603814101471681,0.023479154611067712,0.03874243548337046,-0.0025019656034116627,-0.004952726107693593,-0.14577264532122874,0.33388314042111933,0.28489664015723754,-0.30964826240594223,-0.08014215400258953,0.10781124981335558,-0.003334005934118628,-0.011990759117397902,0.0021359538419580474,-0.029276798033314594,0.016644745612923603,0.10991596130492716,-0.018456136207509508,-0.06285332080630561,0.008365148979908109,0.00890385408002593,-0.0013021704050425152,0.0008047939855825084,-0.004634933647775733,-0.0307116364162598,0.018513018426203107,0.01803186860445652,-0.006741486945209368,-0.003673205816462167,0.0010135083174355615,0.0002551206201589844,-6.208679178776755e-05,-0.0721484865871018,0.08344491997216526,0.07721570336023152,-0.07621576596777868,-0.01976961329638835,0.02580767586342296,-0.001622909777855801,-0.002069925623447752,0.0003466563070111939,0.049166686781284996,0.015344826358563789,-0.029602761926883932,-0.013269783240206423,0.01174609548189057,0.004822778140985055,-0.002295192333359883,-0.00047572419528858485,0.0001870375271861608,-0.0166792203791062,0.052563080132993885,0.11222573750512818,-0.03569075703539125,-0.15226987628363486,0.0066076016674833545,0.07798808412802515,0.0003401053184144756,-0.013036253559817735,0.0027553844726209854,0.24875589935053166,-0.2112122081497847,-0.20989524983876334,0.2426517282870473,0.005679450581199688,-0.07396439566546531,0.027205404044553322,-0.003016780050307875,0.048696926817446855,0.0031971683786147474,0.07487672690358385,-0.0006736912838088867,-0.0768694725576837,0.0002475951160896151,0.024939368984400214,-3.0083790769685603e-05,-0.0026041985806583958,-0.03883130345786137,0.05254787198881699,0.05824738154501066,-0.06373908863398912,-0.012519134857540595,0.03253056413203826,-0.0017255509225967518,-0.005557487568592449,0.0008734446729069295,-0.04065070191289791,0.01695224112726508,0.33203517063275056,-0.06841184474738868,-0.18853184865214873,0.06948471827213673,0.027472204654805425,-0.01709101858608121,0.00223964738133177,-0.0069297747903810285,0.010515986576279572,-0.00091166579920955,0.010084855819662973,0.001162383310730557,-0.03271760741816046,0.014910400748505857,0.004073654627916586,-0.021808755966195893,0.014595453057633174,-0.006127861539574157,0.07536481976940601,-0.0005581287777196714,-0.0016031709023794608,0.006859590644658725,0.0019790107876946563,0.00022489785836762952,-0.10255615655597702,0.003471487797952668,-0.0016448085294341296,0.011705072393232551,0.00016086235275647454,0.0001386665860979245,-0.010733436508023875,0.01051098488022347,-0.001772031736540518,0.0028150125040570413,0.0028621245653186397,0.025444518785974878,0.011365617516416123,0.027789647822844578,0.08686262289128727,0.00123938820252485,-0.00550402013152331,0.0037233094116955294,-0.0089393913064468,0.004059096105489417,-0.027927912552697963,-0.008716896406667063,-0.002062478956846271,-0.02616866216845548,0.005873878142172437,-0.0035118754238782305,0.009017624071499922,-0.0013264049226658654,-0.0215542862760598,0.002273860101825954,-0.0032541995481498794,-0.002213245578790132,0.019569989355100487,0.008819237112387633,0.002953326341191188,0.007791386454488046,-0.03722549142102169,-0.07801577917958413,-0.0219934282840934,0.024473378119089305,0.014474774625905271,-0.009600341258761106,0.006486422511720351,-0.03411709418374993,0.11940863320664837,-0.0321020736652505,0.002267178444404417,0.0033112376097936924,-0.0014907803618517024,-0.0036687339657821873,-0.005952519853828006,0.00073932350835248,-0.009865333380593175,-0.006178199919523331,0.003049724406472283,-0.01966872492123558,0.0009205301497420856,-0.010314385086230646,-0.017309400644351887,-0.006119634755537524,0.019712682664761894,0.07527711962087309,0.01641761426165531,0.03251876072495381,-0.005992479389698154,0.0034887431029162847,0.010355725534034545,0.02109358869096293,0.03197237028397462,0.010488452495824755,0.001706146493469964,0.0042532028906301575,0.0010737931693536366,-0.009562244030186878,-0.0017752448569689674,0.0035061663010961244,-0.00595612284634154,0.004853832558737859,-0.017194519778034482,0.019261195100020972,-0.00526050055245781,-0.010587703352819978,0.019816505535809367,-0.000919687261317361,-0.010237709200796002,-0.02501014251388657,0.029556161091745557,0.006817882139430983,-0.012534958877668503,-0.005780399282517721,0.0004452550007481284,-0.003380859960302367,0.0010883138478506842,0.008970287813585371,0.007281703434893198,0.0007473189654275433,-0.008036265619448493,-0.004524140783452412,-0.006951465904094889,-0.007979788356510161,-0.001494042816975954,0.0016170149945410293,0.003575105033160884,-0.005188326004555489,0.007844312398808772,0.0002488424950402154,-0.007477566396350116,0.018052233598966773,-0.05173924377379236,-0.015516579744376504,-0.0770712847394575,0.00963498588855107,-0.07695938720536566,0.03491617208235729,-0.054245435461160375,-0.0054307737571195735,-0.0033628810475140785,-0.026484738262724364,-0.002579939832354762,0.003496833423586993,-0.015958180095176362,0.00659116986990347,-0.0386728561263618,0.020389996470160928,0.0015534875268027816,0.0034209033569438784,0.012536866918261405,-0.003562937464578404,0.000853666615594227,0.01685188446430728,-0.03733649943980973,-0.001073112140208342,0.003928038576753501,-0.025470657490859284,-0.014483241723254792,0.003924558760061109,0.0004411149246015653,0.0010394525472493903,-0.007712972004965233,0.001349717009550676,-0.007384639312295908,-0.004332487578529864,0.00856943368856845,-0.00920528622344206,0.01365754625313824,-0.0013673470324477802,0.0016445593975610562,0.0020396375339709156,-0.001453092679180946,-0.0035665056971938593,-0.00942369897715591,0.0012236944667024206,0.004273676863861962,-0.03885111205187576,0.0032073590359529675,0.0031097738964846345,0.01129675834312685,0.002141614396994943,-0.005996704179568362,-0.014782435521010377,0.01728542216255773,-0.025363004175464405,-0.021587189254332634,0.03597481164092797,-0.011245295123476754,-0.010671262932855845,-0.001361336042318446,-0.016697956121868827,-0.017039719333720515,-0.0034826834532383803,0.022310085343617968,7.815193962814465e-05,0.01874877150323802,0.003857621002357051,-0.09343157015861524,-0.007242840395379301,-0.003860275716899224,-0.0016746674751778735,0.00053377745002207,0.003183815135339561,-0.0001911828576001565,0.004118867739536449,0.003298226914105732,0.0028438563065706626,-0.0008881133906005172,-0.0011998903742058476,0.005738726678556394,-0.0011809809933876116,0.0007995519131507676,-0.011663873895569674,0.026386903826312827,0.031609759005902544,-0.005884457626234433,0.006191714812686742,0.0021793280468759826,-0.02361277213911921,-0.0018960772567642808,0.005051169602346072,0.060902554329122574,0.005483065703641453,0.017117772800021226,-0.02030189955700907,0.005546626618422087,0.00499069146379424,-0.0007372888338937314,-0.002804715703760326,-0.003969153194861297,0.01726566262940214,-0.07133017174698994,0.007374110297162001,0.0017892233511095264,-0.003930626028505113,-0.0041470227729490765,-0.004697495780972255,0.0036258645809739403,-0.00894668343791588,-0.0001712196048275481,-0.01089072923221953,-0.0015716988142860102,-0.0003484931309731408,-0.005893268490225584,0.02240499084224145,-0.0014045449194158227,-0.0005836765691277189,0.006437878794897582,-0.02740710350998942,-0.003236894578484688,-0.005903633117440818,-0.009925754495638995,0.0009278687352328187,-0.002769481581179157,0.025942924129527298,0.012890407657145653,0.0004478710952868888,2.2044633101334088e-05,-0.003390272012140665,-0.00013450286437784523,-0.0037470475022209735,-0.003107756479420795,0.001626024850512539,-0.010358919251196913,-0.038719364366229025,-0.004491616217293382,0.0024367034531839085,0.10927990579275003,-0.0022118090257759425,0.006149058964652001,0.0024061305752059664,0.006247700824998795,0.004077850444211034,0.02306654068409808,0.003681306884705823,-0.0022035327668467964,0.03443770124544519,0.0018211355397255765,-0.014359157756181046,0.03691827141411254,0.007302961525202493,0.003326838808535753,-0.0027942426690642738,0.002255228014563917,0.012976436776545083,0.001354321307193822,-0.008728516903159938,0.0030541868492857285,0.008347988635438817,-0.0014944580651030989,0.007136064273458881,-0.0020665195050979177,0.0031699364361969964,0.021252511421166326,0.00321184475385962,-0.002892933381589443,-0.018900246319867954,-0.0050937549750311156,0.008306118538221312,0.008162402384875225,0.0004563465108259621,0.0030678755224343938,-0.004407370960436081,-0.00296041840918241,0.00034455850471450545,-0.002213995486547397,-0.0530764563787127,0.005836986145933775,-0.008459612453750726,-0.006458921396492809,0.001656019636602227,-0.00013057165606357403,0.0029895126712813397,-0.0036767499044890626,-0.0014937548074376063,-0.0029414693588058847,-0.0035689635944494646,0.013996325132734553,-0.031214487338150174,0.005692055342064361,0.006843940101012361,0.012327645699230462,-0.008814861559162696,-0.005368090589169048,-0.0033596423225151772,-0.0029055366732289364,-0.00559149072335876,-0.009314696335993316,-0.015032429246674302,-0.1457705751951986,-0.002475085712882355,-0.01002346467592875,0.03578376350474122,-0.0011472416729811363,0.0008182412876218846,0.0022705913881364446,-0.0010521548018572414,0.00250576261751483,-0.0006636957688874456,-0.029266400405233782,-0.00016551713570461812,0.00972739812742806,-0.0017301070230159353,0.0011873062665336853,0.0033260673667297814,-0.0024381364731472,0.0020416575809399677,0.010914824396236072,-0.0046479845054492736,-0.021215874579847617,0.010277292438615405,0.003937700022592576,-0.01191668992361852,0.0034480165188681446,0.0027005280603004285,-0.023605423259797045,-0.07216143648217857,0.008178387321630985,-0.0024998853773046427,-0.007790525266737677,0.008034155809169923,-0.001589831814275404,-0.01240778706809267,0.04917050107951196,0.00011748206690580286,0.0034102706371920075,-0.12822561964662246,-0.007940291535459365,-0.01007390290989598,-0.016667168223964635,0.004465716796682626,0.005611289848431146,0.0027387840779718297,-0.0018721153366138572,0.0027703341889481065,0.0001662976518120576,0.001117145562057711,-0.017041943712823276,0.048711806956186314,0.0004213094825196782,-0.005759429006418338,-0.038831887922880795,-0.005294071038650846,-0.040664311862708434,0.290171166128233,-0.012567304071863506,-0.09067949965998084,-0.011511037558649248,0.19298277254187657,0.0040872112588426004,0.12192815901180389,-0.020973085268635117,0.022432682157426623,0.0009064168686688367,-0.06829879174506065,0.014106126062989525,-0.039665339602689746,0.010435954409041704,-0.04227112751642795,-0.012723804204754895,0.0195913555282105,-0.014341552657786577,0.039212733375489604,-0.023302544136475978,0.10860271696977337,0.030234620965774978,0.01005373748876294,-0.0027833323594455683,0.0026489375376363973,0.006077392122577861,0.049467157878680286,-0.04139480165778165,0.011721254151252206,-0.020612406232300318,-0.02277260292274518,0.016720785308434915,-0.019190497321045982,0.007817716033925434,-0.018201334020224693,0.07174291175275865,-0.005402876217673263,0.006186455018734483,-0.01960978593633889,-0.010012349426214059,0.13624753222620362,0.026197883670173606,-0.006833644329272619,-0.038951384128399845,-0.01837275627186355,0.0001095349094455654,0.017490197293794724,-0.023635732186472597,-0.004647265156656311,-0.0342415961321602,-0.018394375426361992,0.008745889591070716,-0.10691287799382332,0.021293830591267385
