-0.030427151030365515,-0.18310590318252676,0.12730490818443696,-0.020905093571467866,0.17543281721356113,-0.01629865250775934,0.07014676852416464,-0.03944941861739564,0.03030457598638089,0.018455378820514762,-0.004017377012524265,0.0042392176746614135,-0.05610391015002808,0.008583645715641118,0.003726705870645477,-0.015461544956088077,0.004201743680721186,0.010182162624417374,0.0037843814895890514,-0.11385095811553608,-0.061207122934498065,0.025495045907265312,0.01256996134214684,-0.001621244719346845,-0.0007174058704509426,-0.03404675292479115,0.04503036432490079,0.06279339999299573,-0.029480374283568443,-0.029870824849884105,-0.024537221004874654,-0.13639181397342814,0.03966516914639973,-0.19744988397705082,-0.05421843847625027,0.04820728571144886,0.013865526094082443,-0.003490890144429424,-0.0010419302930377672,-0.033630915580620833,0.04554873728609983,0.06463488251976518,-0.024341784834272323,-0.009622655354302682,0.048588832460990966,0.13305211835479308,0.008222462346830347,-0.025812084958506974,0.0017322466001691529,0.012465831210999107,-0.000984771250012851,-0.0025542723532613575,0.000546141099909598,0.018325897565030523,-0.023809868971147924,0.002461922711544818,0.005609457250535974,-0.0011714680857007219,-0.0005905734593233327,0.00014285740682827737,-0.022586585410875045,0.10656719349642155,-0.12546603583204027,0.06585492208884045,-0.016994886571937574,0.002139375649008287,-0.00010545773530890257,-0.020626882092888287,0.06491976003141187,-0.007518752329951476,-0.029377287697530303,0.01166644349451514,0.00011576605327894268,-0.0003945033975232005,0.0028236418994257023,0.02859184699109314,-0.10896245419899003,-0.018175958009740555,0.04230383212241356,0.003032821667745945,-0.0054377562864622465,-0.01991859229297268,-0.05022500083925715,0.05287823890486909,0.038814098482857315,-0.026007822911963976,-0.007919318128119933,0.003909954402820556,-0.013019005392132004,-0.0016984114108905025,-0.01694035284885375,0.01380648231056452,0.0013457283954111717,-0.0023709798017939763,0.00038024063956092896,-0.04000504185430015,-0.008652110600244399,-0.0696807003318742,0.003362324057844696,0.03397607732238003,-0.00039349010216557854,-0.004970476490709053,-0.028719991249561632,-0.0037091482818049845,0.10514197400055761,0.0010292032547807705,-0.06248678259910523,-0.00021929598849378118,0.011226829880214267,-0.010064584724173854,-0.03485376555768428,0.051195733347285804,-0.0029860016446877965,-0.011135614581825694,0.0035059156586160624,-0.00026678430482315944,-0.03759290388713379,-0.02368595637408269,0.11016213765923207,0.011263916063486711,-0.05016071709277316,-0.0015281888094504752,0.006930055882898391,-0.003075998850065029,0.0012086721945040423,-0.009135490158485422,0.0006779229748572104,0.001917631811587544,-0.0003785466560155725,-5.331505556761053e-06,0.0037920579336755155,0.005907407150625911,-0.0461635491001241,0.005737998278107467,-0.009788584906469756,-0.008226805173063945,0.007589998102709488,0.012831738675717151,0.0003006657068415023,0.00045158026444371436,0.015035480185665313,0.004859785968283832,-0.0009644667557908984,0.0005445513724624735,0.00028262218961892284,0.004655094673477452,-0.03402082908574051,0.009276322183816223,-0.03384235682859887,-0.00753386891283719,0.007660141911213258,-0.009033575595501983,0.005206627037521718,0.001296012025926688,-0.0014678447304125788,0.010790535794098707,-0.004245100379184031,-0.001732654522864416,0.016482672494175184,9.382135360348277e-05,0.006077472937138783,0.03966940029589866,0.00934644834245509,-0.005593564393647947,0.010151420986683287,-0.0027079259648789154,0.020111794505775982,-0.001121675384201019,0.004507241159860514,-0.06786700463277193,-0.0015991826555589058,0.0030688042727289927,-0.01762820021586861,0.0036709191357706047,0.0005127576899658382,-0.03366387240547543,-0.007681739261222623,0.007804115482285284,-0.009032847161553333,0.005224551852574558,0.0012823590808639593,-0.0015967950585187237,0.010731857285716174,-0.004100235671147274,-0.001484686902767453,0.01622432803406919,-5.334262005441911e-05,0.006008320624095043,0.008229711243165483,-0.02930413229995145,0.0052354802967827475,0.002994579658220217,-0.002622782970114176,-0.0009595989615567221,-0.011887099347055155,0.0007802019648725307,0.0012783112739721183,-0.06474789486855295,-0.002681987279749165,-0.0017066297249344982,0.01832544960734357,-0.001581945381534216,-0.0021386812309964563,-0.0028016937756673308,-0.0015517757241135526,-0.003649287354315022,0.0016053861459598157,-0.00011880687768172932,0.04805018601307274,-0.0031780357800068456,-0.008171366667275899,-0.022566801886956457,-0.008577275620815217,-0.0006343091708700407,-0.0008429844089793382,0.00017631080741063862,-0.0011575482154619868,0.003532094271465335,0.002043413541830936,0.002946082685887615,-0.005622878598963415,-0.020635700440870187,-0.006406448611972836,-0.002167703195035623,-0.008063586643632818,0.0023865976736230357,-0.007305568880928683,0.0007287454859192665,-0.002995327377250419,0.004449402584710318,0.002829020213399292,-0.0006826766292005652,0.005323542886499854,0.13180496000735148,-0.002306970229743846,-0.0021212421542157562,0.0008671045244514205,0.0013573970566728914,-0.019918418168218873,0.0013943784606135477,0.001834551823960398,0.01957864087743969,0.0024256373319303417,0.021176900288903053,0.0008158116222089127,-0.013011015576451776,-0.0034391802538199386,-0.0030982091180039905,0.03895041115476133,0.002005859425638175,0.0019100042967587104,-0.040005362802588804,0.0026346439456655787,-0.0021658245888050843,-0.0014283012852787467,-0.0016868160359644936,-0.02872228135091971,0.002197877265058484,0.017322994283777385,0.004382666603318336,-0.010060578623180777,0.006932916304382321,-0.008118973874445518,-0.03758771933943176,-0.0009761375605002583,-0.0030787517417145,0.1505200262596919,-0.034611450148714425,-0.026338448479029365,-0.01045114749557846,0.219281058350218,-0.05238705615843855,-0.02638272263057584,-0.01057616448249914,0.07467799861403006,-0.034056407598305485,-0.03566622672330762,-0.03935326277881745,0.00895891839504984,-0.027714564792714873,0.007745628106891498,-0.020472310831774067,-0.009033167572139029,-0.03600872902040725,0.012907402034295997,-0.0178111625243546,-0.055648046777545014,-0.024349568322471763,0.010060680370329792,-0.012960324832429508,0.004289525749105922,-0.011181612246350222,-0.010505409170248264,-0.022585580232970935,0.008221830838222156,-0.006564681255658624,0.009684861855740533,-0.028953369365548577
