0.03759952838582867,-0.11401635122287751,0.3049937287023713,-0.05125813609538067,-0.018148549018957655,-0.051630007733305006,-0.015180782274616902,-0.1265375941439376,-0.02751541736271978,-0.03500652440011933,0.0016346343397708606,0.09417326043374225,0.015389519306150842,-0.002614340783810301,0.004759284568681393,-0.003983366858532133,0.00710648322721831,0.004884593281784268,0.008194584201167652,0.055513175341833705,0.016363881886027172,-0.011816887431689675,0.05150509461989155,-0.007864463805030225,0.00046694922533130866,0.050240727444117686,0.012541847706010587,0.021312963283648206,-0.02563087202889061,0.07262181517374666,-0.04789612610996757,-0.1153291770730623,-0.006755771710480852,0.028738944362792798,-0.0009204566303167817,-0.0022603026214425065,0.0003042402660948453,0.03229892903301512,0.015799353025506557,-0.025774780030465655,0.009391652316471256,0.011071789252813956,-0.004922258012555539,-0.000924464961136422,0.00042513533181333233,0.04086443218169414,0.07019584744465332,-0.08755249747163063,-0.08574366548525111,0.05062118988018284,0.022920812163644666,-0.017369902319887,0.002630105228943886,-0.058470079217985006,-0.02140404747116402,0.4258811383449549,-0.23340058024072713,-0.12880351785190386,0.1430903718624337,-0.042091580978492506,0.004124564068440603,-0.003663751609826892,0.014023141807042332,0.013675499054647716,-0.003874455129908822,-0.0058588114434112,0.0003165515574630774,0.000575811689195052,-3.852510461428108e-06,-0.020051567408178733,0.2291953051504686,-0.0631395866470641,-0.0937770344800796,0.043165400269465845,0.008336183268499185,-0.007101040153879258,0.0009737497589102222,-0.005146158881226255,0.015510716140997156,-0.014301616931401584,0.014505083947173505,0.005271897307541035,-0.00556709391773993,-0.00019243093586094294,0.0003593312620621625,0.04656254148223757,-0.015123532718492955,-0.07084143633028342,-0.012463835718809935,0.022606447808968394,0.00315986454415037,-0.003925887405484798,0.0005269403108522672,-0.04947248283474171,-0.01213217594532516,0.13185369233772273,-0.02788044795335244,-0.03814444039857061,0.01216595128849723,0.0019773212965524447,-0.0007404696225581356,0.0035470755951481497,0.5572542997203282,0.32001379502189764,-0.6754900169623635,-0.5514084341066361,0.1262903625744826,0.20542412914835534,0.04579237615218879,0.010052550892445125,-0.28198579189614315,0.27887760930868816,0.6253046508706225,-0.6753133272635286,-0.2227087771290805,0.38393251371090475,-0.09362339188521926,0.02027048345100545,-0.040899943489523964,-0.15301819944161527,0.12993707792760528,0.030771497430243037,-0.062466912906336505,0.021945246237040694,-0.002461504771178607,-0.055104841081944876,-0.10287891459931989,0.00497310918078115,0.06486175442860947,0.0023301744119857103,-0.012975543636069006,-0.00028411857205772875,0.0006444909742593075,0.0011636285881239938,0.023249692860337665,0.008440272646783348,-0.012438993523232175,-0.007636309925269147,0.0011570548615732808,0.001116153796517457,0.0004031734050712341,-0.05155822223947819,-0.16809391193470685,0.23296448512160728,0.009126082670204871,-0.10335634262258622,0.047095618505543016,-0.00748580424213878,0.0002980045111361414,-0.01763386808288646,0.0789468378800061,-0.031585849708951445,-0.10088512990340949,0.006057278946272447,0.03737763711652059,0.0001329164563865857,-0.004361636499909118,0.02366811740543733,0.1657222434552871,-0.16804756214291794,-0.269800714712779,0.11469600247630227,0.14744294986788534,-0.022846651539380345,-0.025868133568437705,-0.06397395629326755,0.2669782587374614,0.004607680867807315,-0.19204940799697487,0.05724730704078067,0.03454979831457913,-0.01995523337312749,0.0027208883949980073,0.011150468284372172,0.03377305433295319,-0.13663006257239368,-0.05836518792462969,0.09726651075475343,0.029595040180763144,-0.019472484607493557,-0.005191683331664289,-0.016462970702651174,-0.011030312980345458,0.031197337948205464,0.007126087795935248,-0.0069815880980451245,-0.0011429613190382971,0.0004195325578529633,5.698325263339904e-05,-0.039979301053808244,0.06107089918872288,0.06555890582924047,-0.10802690600464881,0.014931062959792405,0.032894126593511167,-0.015676187455806883,0.002033380827573502,0.032287655930397494,0.07402481517826025,-0.006174793582599272,-0.037580220387748615,0.0013723533781576868,0.006415335877953222,-0.00013924242797419545,-0.0003626521580281231,-0.015039093478552878,-0.11096632795635501,0.13853437911705968,0.17968150449945872,-0.10477673098992114,-0.09865347472991894,0.020964986291970515,0.01722807231515515,-0.03206272427060549,-0.14474088040636762,0.053949735052648065,0.12548145339821568,-0.0444485513846714,-0.03148964769131073,0.017778175134152547,-0.0023250268126166276,0.051771545769088254,0.00911076179980358,-0.013824605771009694,-0.0028468962922061376,0.0008854191187458657,-0.001492900713110878,2.7107898086503558e-05,0.00027281069097071913,-0.023235334451924647,-0.2767815983781663,0.08865318331008382,0.29124400850930443,-0.058135020586103536,-0.11720734910914618,0.01107303395984777,0.016494369009693546,-0.05838465360233015,-0.1241506172023647,0.13972940599404698,0.15349494886307155,-0.10824172574477092,-0.029712588482174777,0.02930618947270976,-0.004701368076494323,0.07259565690032393,-0.01878567136889828,0.014289151900235726,0.009145041300771352,-0.004906827831368066,-0.11268057396924362,0.0011023943362729023,0.003456066623412659,-0.021936632202278095,0.05070638893728331,0.009346305969942476,0.03593573358966422,-0.008933681726913965,0.0043997909299188865,0.0015465456760858018,0.003657658224915217,0.0028013377217556406,-0.05549557185954114,0.004614972323547397,0.0007847115761009872,-0.0013703754345592788,0.0030426893777797783,0.006773821924729638,0.0024417712083096895,0.01288795755389991,0.0100127143099514,-0.027374288163772485,0.032290278341883236,0.023387146462871017,-0.010032054580548328,0.0008609012129977853,0.07613609609052407,-0.02253385651041498,-0.06197764632329989,0.015088056202626356,-0.04651270742134834,0.011648379228507567,0.021517977942711486,-0.012717279405049523,-0.029082172294521834,-0.042758434076041615,0.0012956712574804395,0.010233312114122622,0.02212303196852023,0.009183905353869742,-0.013167569859253665,0.012704743464681473,-0.00887774556649851,-0.013048647772862246,0.017555945127336978,-0.012819127984621079,-0.005173624601969375,0.023402292115979197,0.040780413112657087,-0.0040065624411047655,0.020173210403144605,0.0060580818055266175,0.001341299769001535,-0.009597052050552998,0.026209897658960063,-0.01273261966398737,0.11629931714604932,-0.0007308915641647731,-0.004061565849297651,0.006047155983529108,-0.02057676448374417,0.0057027712949899705,0.015291037931630488,0.01675646341246761,-0.0021248264831447232,-0.008067476005590468,0.02194831065236446,0.020243867717893035,0.007175802370914541,0.002101737106328787,0.023607535475219633,0.005739639893771771,-0.019605633075700173,-0.05845888139708664,0.002145077816232031,0.004589208093156283,-0.003085744712905465,0.028131732515786288,-0.005074027782628391,-0.00424804420151596,0.004416496469908986,-0.010394068165725516,-0.005079509151199028,0.005847180363430149,0.005544800927195139,0.007082202031928303,-0.005889122339369519,0.007035070057423544,-0.004889961223878254,0.017512911807006905,-0.016300658516165464,-0.00416071859266274,-0.006625438660511743,-0.005261370712418886,-0.011517278808920093,-0.012661001125574915,-0.027251456364272293,-0.00369378734841635,0.0019578886597518205,0.020988130195976368,-0.01058708710550363,0.015902612377763914,-0.0016622543288293866,-0.011310985007488143,0.0054577344987555235,0.0071538676932301,-0.002185044688286957,-0.005571692150058987,-0.0024095611350006913,-0.003297566628962175,0.010187567948780016,0.0007585315423949952,0.01260123364680677,0.02139383275122154,0.0095569513606766,-0.0016504731704021962,0.002174070888132713,-0.000514774502004297,0.0073723052808882614,-0.018854423826038736,-0.02003039790520157,-0.014193844697995924,-0.05326534154141577,0.01174872409105955,-0.0877744077587124,0.004282920804185894,-0.005754614743738516,0.005282634565092016,-0.011882984280795778,-0.028695432395244292,-0.001517722503252163,-0.00026449254179887645,-0.02754450545660366,0.002151772701803575,-0.023185894212410026,0.016813380137437252,0.002556652561492121,-0.004783093809345641,0.014329401688370554,-0.007215132848204003,-0.005095217982699249,0.011422137164711481,-0.005112591736774266,0.014016050838752472,-0.008891126694152242,0.0037078642545890234,-0.01336168389660917,-0.00822205542682547,-0.0016661572952441101,-0.006132467242570348,0.009875220695769672,-0.0026374682145282446,-0.000778940952553151,0.018961682136480577,0.0008416490834867833,-0.011148199100271167,0.011450276756095813,0.0063588675334649855,-0.013698709509080899,-0.002835458204083591,-0.0033098003391988096,-0.008567108540423335,-0.014850614967892514,0.046549425277759834,0.010052935657939962,-0.0518885906924523,-0.016107158607998245,-0.0006549337036646907,-0.012015136083314188,0.027109981647019856,0.007331140852952032,0.008688639557854858,-0.027584886672997758,-0.006975614247024597,-0.012871004606768937,0.012689433371071136,0.0027052833825444607,-0.0043708719213838825,-0.008952334294487243,0.008292484669998643,0.005451617362124935,0.0398693000451009,0.03806906113582907,-0.04946211679398226,0.007432066374107792,-0.0032097098379749523,-0.031863268595755466,0.0034091958758827407,0.00341938754578222,-0.006938191576946291,-0.007529249662356747,-0.0058454380473466185,-0.00042611357442118216,0.017517911221174274,0.015425348687551615,-0.018256022397258976,0.007195793605454778,0.004561214722449289,-0.0077515490105493825,0.013952865529619812,0.00822579815292359,0.005847582666485269,0.003493929998547529,0.012820225303008883,0.010513720887067646,0.001173258792918539,0.007318085810276967,-0.006127588946910016,-0.0012870991328660045,-0.0025365363401044644,0.07459202920121981,-0.0007381494193531637,0.009546133523515549,0.011834151247828124,0.007575010426935746,0.006369043792480829,0.00013545150885508825,0.006136975139626217,0.008835243928037207,0.01436575813138449,0.010039803323714076,0.0023198534972665107,0.0015496787956529342,0.0012058223580638464,0.0029027101110213095,-0.014360204037247757,-0.009515018767103405,-0.0008706864532228554,-0.0010578930741755508,-0.014654479167974462,-0.004450108913544542,0.005673340884673778,-0.009513101154491653,0.010125531491038838,0.006616883450392879,0.0007459626884702229,0.00987704069587165,0.020282070647830164,-0.0027288627849859958,-0.004473315207649896,0.003968502162009055,-0.0019327123170233117,-0.00027687345849935433,0.004315184138356194,0.0020779932186682478,0.008627716217829345,-0.01036616573046888,0.00443324484027854,-0.0001599651732823379,-0.007429919962569184,0.008660904477426809,-0.006848659016829467,0.004217592484140588,-0.055128802394655056,-0.00402040128331004,0.005652669658098463,0.07436644870672823,0.0016956051621870062,-0.0026140190437343204,0.0018074326974740675,0.004908886203794691,-0.0026892206886280356,0.018749249035953413,-0.002502060532076381,0.0020561234264708976,0.020950719608134095,0.0017036937841420812,0.01878180452921965,0.0012032551692900927,-0.009752663488145429,0.0074680175633137945,0.0035209555364916264,0.0099402314114158,-0.001157491076265814,-0.0015306109563705443,0.005227642328458137,0.0127409054273325,0.009385406845315572,-0.0028935685452868357,-0.004859845930224637,0.012171031251214907,-0.02701459017558946,-0.051512545633562154,-0.0010110410674989277,0.002467936843723881,-0.006180894688462601,-0.005128214335465309,-0.0029347105786393193,0.018491604144576766,-0.004130813797205901,0.0033470771144640896,-0.003961328159038761,-0.014628987516543412,-0.020298097009688078,-0.01272123765821307,-0.017563162508431377,0.0006023749943912145,-0.005290250385337657,0.007776849474917956,-0.001904093708137886,-0.008516313457424403,-0.0025502657395997212,0.007178368081010199,0.0006226302131041362,-0.002159731234912491,-0.0033542789969012313,-0.009349578506687904,0.02372986565576129,-0.0028779062472455543,0.005799412106503498,0.0041615414787281,-0.007442290879521066,-0.0030710504071824714,-0.02194374384805188,0.008110208838541435,0.007806071296123832,-0.013719495923859782,0.017454542182209296,-0.06387089679153699,-0.008854346442883548,-0.014178333126293744,0.007476516013297094,0.003656114493906194,0.006136723363519325,0.008869775844801177,0.015151721605717311,0.006536415215630687,-0.006295585901576041,0.011139268395445004,-0.013608979922977226,0.006010759634158355,-0.006321093587538284,0.0025291435545849363,-0.0051524142961104444,-0.003430392302575305,-0.003329146301485199,0.02522051131548721,-0.016450758142637675,-0.026922247123561862,0.0015380869995011773,0.009528550256352596,-0.0012894451705161005,0.006077851416086757,-0.005738835517260887,0.009587578358613924,-0.03996326836614465,0.015539942970684215,-0.0050673936221599936,-0.00623310076821258,-0.004114222876172011,-0.006967495026616878,-0.019503776696829657,0.03228123818474704,0.00854184627660212,0.003468882041604542,-0.07680099285269582,0.009347756243402797,-0.016513825741423013,-0.015076858603351978,-0.0005199898484608448,0.004382137494140399,-0.00016064754798642347,0.011357498322390122,-0.03202522484247863,0.005612170635148437,0.00888527442693461,-0.02249168025537715,0.05175626830041202,-0.0026762514090407632,-0.005252551549768818,-0.02327007387059629,-0.03072874683068363,-0.058450537455036936,0.31243834736699727,-0.07120556476842618,-0.054707604093378465,-0.04460748570604922,-0.03052632353573954,-0.05003411344167725,-0.049827300653606396,0.021332197143836037,-0.017868065451940255,-0.02048018666257415,-0.16530996095330455,-0.01834601964584295,-0.029268333834689287,-0.02241616820901931,-0.03230869503125873,-0.0518139320633018,0.0034533688152127116,0.00435317231402545,-0.004369084170662538,-0.013539566812257566,0.06765444867699487,-0.018358273078985198,0.005274397751259111,-0.04243797641186006,0.02245662380623037,0.001767826602097483,-0.007958737424077544,-0.026080759364102115,0.034655645473772485,0.009323542374853918,-0.009117847299211609,-0.0183370091177864,-0.02171132842056047,-0.0449266111270368,0.008865781693701943,0.005328329490112178,0.010222142537595614,-0.03727094646156032,-0.009996217542851729,-0.01817430907816875,0.04092160007137274,-0.0027959765788126215,-0.02040816383560607,-0.03959180636039718,0.02049292526155086,-0.012462862601982568,0.07567503552605917,-0.007278060868846444,0.010978838150759455,-0.05179665817950589,0.0698911412996497,-0.010463677215390158,-0.003339110170905841,0.009671138126135133
